<?xml version="1.0"?>
<opencv_storage>
<cascade>
  <stageType>BOOST</stageType>
  <featureType>HAAR</featureType>
  <height>24</height>
  <width>36</width>
  <stageParams>
    <boostType>GAB</boostType>
    <minHitRate>9.9500000476837158e-01</minHitRate>
    <maxFalseAlarm>5.0000000000000000e-01</maxFalseAlarm>
    <weightTrimRate>9.4999998807907104e-01</weightTrimRate>
    <maxDepth>1</maxDepth>
    <maxWeakCount>100</maxWeakCount></stageParams>
  <featureParams>
    <maxCatCount>0</maxCatCount>
    <featSize>1</featSize>
    <mode>BASIC</mode></featureParams>
  <stageNum>5</stageNum>
  <stages>
    <!-- stage 0 -->
    <_>
      <maxWeakCount>1</maxWeakCount>
      <stageThreshold>9.7530865669250488e-01</stageThreshold>
      <weakClassifiers>
        <_>
          <internalNodes>
            0 -1 5 9.2994868755340576e-03</internalNodes>
          <leafValues>
            -1. 9.7530865669250488e-01</leafValues></_></weakClassifiers></_>
    <!-- stage 1 -->
    <_>
      <maxWeakCount>2</maxWeakCount>
      <stageThreshold>-1.4212994277477264e-01</stageThreshold>
      <weakClassifiers>
        <_>
          <internalNodes>
            0 -1 8 -2.9611750505864620e-04</internalNodes>
          <leafValues>
            9.5061731338500977e-01 -9.7260272502899170e-01</leafValues></_>
        <_>
          <internalNodes>
            0 -1 7 -2.3895433696452528e-04</internalNodes>
          <leafValues>
            8.3047282695770264e-01 -9.2419475317001343e-01</leafValues></_></weakClassifiers></_>
    <!-- stage 2 -->
    <_>
      <maxWeakCount>2</maxWeakCount>
      <stageThreshold>3.4747067838907242e-02</stageThreshold>
      <weakClassifiers>
        <_>
          <internalNodes>
            0 -1 6 -2.3858998611103743e-04</internalNodes>
          <leafValues>
            8.5185188055038452e-01 -8.6301368474960327e-01</leafValues></_>
        <_>
          <internalNodes>
            0 -1 3 -1.2129845563322306e-03</internalNodes>
          <leafValues>
            8.9776074886322021e-01 -7.9297286272048950e-01</leafValues></_></weakClassifiers></_>
    <!-- stage 3 -->
    <_>
      <maxWeakCount>2</maxWeakCount>
      <stageThreshold>1.1380385607481003e-01</stageThreshold>
      <weakClassifiers>
        <_>
          <internalNodes>
            0 -1 0 -3.6830347776412964e-01</internalNodes>
          <leafValues>
            1. -7.0114940404891968e-01</leafValues></_>
        <_>
          <internalNodes>
            0 -1 4 -2.1158196032047272e-02</internalNodes>
          <leafValues>
            8.1495326757431030e-01 -8.6997747421264648e-01</leafValues></_></weakClassifiers></_>
    <!-- stage 4 -->
    <_>
      <maxWeakCount>2</maxWeakCount>
      <stageThreshold>-2.1638225764036179e-02</stageThreshold>
      <weakClassifiers>
        <_>
          <internalNodes>
            0 -1 2 -3.0481719970703125e-01</internalNodes>
          <leafValues>
            9.7058820724487305e-01 -6.9767439365386963e-01</leafValues></_>
        <_>
          <internalNodes>
            0 -1 1 -6.3464359845966101e-04</internalNodes>
          <leafValues>
            -1. 6.7603617906570435e-01</leafValues></_></weakClassifiers></_></stages>
  <features>
    <_>
      <rects>
        <_>
          2 3 30 14 -1.</_>
        <_>
          12 3 10 14 3.</_></rects>
      <tilted>0</tilted></_>
    <_>
      <rects>
        <_>
          3 1 1 8 -1.</_>
        <_>
          3 5 1 4 2.</_></rects>
      <tilted>0</tilted></_>
    <_>
      <rects>
        <_>
          3 3 27 14 -1.</_>
        <_>
          12 3 9 14 3.</_></rects>
      <tilted>0</tilted></_>
    <_>
      <rects>
        <_>
          8 1 10 5 -1.</_>
        <_>
          13 1 5 5 2.</_></rects>
      <tilted>0</tilted></_>
    <_>
      <rects>
        <_>
          11 0 13 8 -1.</_>
        <_>
          11 4 13 4 2.</_></rects>
      <tilted>0</tilted></_>
    <_>
      <rects>
        <_>
          17 7 8 7 -1.</_>
        <_>
          21 7 4 7 2.</_></rects>
      <tilted>0</tilted></_>
    <_>
      <rects>
        <_>
          28 0 4 2 -1.</_>
        <_>
          30 0 2 2 2.</_></rects>
      <tilted>0</tilted></_>
    <_>
      <rects>
        <_>
          31 22 4 2 -1.</_>
        <_>
          33 22 2 2 2.</_></rects>
      <tilted>0</tilted></_>
    <_>
      <rects>
        <_>
          32 21 4 3 -1.</_>
        <_>
          34 21 2 3 2.</_></rects>
      <tilted>0</tilted></_></features></cascade>
</opencv_storage>
